{"conv1_kernels": [[[[0.3448367714881897, 0.4701850712299347, 0.11171571165323257], [-0.2389957755804062, -0.08923670649528503, 0.398444801568985], [-0.45258525013923645, -0.2211451679468155, -0.21358904242515564]]], [[[0.2870568037033081, 0.2932543456554413, -0.04377196356654167], [0.386266827583313, 0.41416966915130615, 0.44250592589378357], [0.10953152924776077, -0.04371553286910057, 0.13811363279819489]]], [[[0.1734519898891449, 0.41237592697143555, -0.3414006531238556], [0.3029448091983795, 0.03677667677402496, -0.4553242027759552], [0.39361804723739624, -0.24447575211524963, -0.278876394033432]]], [[[-0.08209150284528732, 0.4654936194419861, 0.33754590153694153], [0.3612858057022095, 0.12531742453575134, -0.0874212458729744], [0.02072918228805065, -0.24544374644756317, -0.5551910996437073]]], [[[0.20182597637176514, -0.4451911747455597, -0.27500930428504944], [0.014235003851354122, -0.42176005244255066, 0.053122568875551224], [0.4185540974140167, -0.26782044768333435, -0.3736213147640228]]], [[[0.46497970819473267, 0.19058921933174133, 0.3525138199329376], [-0.07864180952310562, 0.29055529832839966, -0.27564921975135803], [0.4088919162750244, -0.055001188069581985, 0.1333787739276886]]], [[[0.32050734758377075, 0.16472555696964264, 0.4046716094017029], [-0.4366145431995392, -0.3865763247013092, -0.6671804785728455], [0.050449322909116745, 0.08170894533395767, 0.25102758407592773]]], [[[0.0018684103852137923, -0.09300693869590759, -0.4945020079612732], [-0.34298115968704224, -0.2938547432422638, -0.34512436389923096], [-0.03366732969880104, -0.33877331018447876, -0.17994436621665955]]]], "conv1_bias": [-0.003730783239006996, 0.04449338838458061, 0.03168202191591263, 0.014372143894433975, 0.2114551067352295, 0.13958556950092316, -0.01053390372544527, 0.18609465658664703], "conv2_kernels": [[[[0.08153144270181656, 0.07470498234033585, 0.1247662752866745], [0.21203292906284332, 0.31951668858528137, 0.2886412739753723], [0.014076240360736847, -0.003541176440194249, -0.14814646542072296]], [[0.1575532853603363, -0.0830143466591835, -0.04834568500518799], [-0.03604234382510185, 0.08237753808498383, -0.15660890936851501], [0.0475640669465065, 0.05935287848114967, 0.1254231482744217]], [[-0.004203470423817635, -0.23597773909568787, -0.10863883793354034], [-0.0881292000412941, -0.027224808931350708, -0.14112059772014618], [-0.13144883513450623, -0.08806446194648743, -0.01209902111440897]], [[-0.07693836838006973, -0.02658015303313732, 0.2033904790878296], [0.14209721982479095, 0.2998223602771759, 0.2128628045320511], [0.03720857575535774, -0.18339210748672485, -0.122144915163517]], [[-0.07365039736032486, -0.11524861305952072, -0.16784720122814178], [-0.0299835205078125, -0.0913841500878334, 0.08023393154144287], [0.060969725251197815, -0.08530880510807037, -0.03754575550556183]], [[-0.04943053796887398, -0.02761106565594673, 0.08593887090682983], [0.15572766959667206, -0.06780215352773666, -0.030244048684835434], [-0.03935454413294792, -0.16340962052345276, -0.05976083502173424]], [[0.13940797746181488, 0.07882124185562134, 0.0047726803459227085], [0.24724455177783966, 0.2091170996427536, 0.34842777252197266], [-0.01808631233870983, 0.059627287089824677, -0.07523336261510849]], [[-0.01691482402384281, -0.015311084687709808, -0.09356193989515305], [-0.04317387565970421, -0.08663927763700485, 0.09918847680091858], [0.05514282360672951, 0.023841435089707375, -0.08297228813171387]]], [[[-0.10751158744096756, -0.49716830253601074, -0.0954684466123581], [-0.39290136098861694, -0.2921849191188812, 0.04502714052796364], [-0.0468716062605381, -0.058565184473991394, 0.09677565842866898]], [[-0.18243280053138733, 0.007997906766831875, 0.04800579324364662], [-0.04632135108113289, -0.0069017731584608555, 0.027799542993307114], [0.04831714555621147, 0.002129592467099428, -0.05481366440653801]], [[-0.2605254352092743, -0.13463526964187622, 0.07620787620544434], [-0.09287390112876892, 0.2101878970861435, 0.19703887403011322], [0.09099097549915314, 0.24896599352359772, 0.016752975061535835]], [[0.03180459141731262, 0.10136226564645767, 0.2576446235179901], [-0.022373799234628677, 0.33379897475242615, 0.11506660282611847], [0.04229827970266342, 0.103359654545784, 0.0471259206533432]], [[-0.19305457174777985, -0.13172116875648499, -0.23848028481006622], [-0.14029818773269653, -0.19931535422801971, 0.017670705914497375], [-0.12194943428039551, 0.1343328058719635, 0.09799258410930634]], [[-0.009118366055190563, -0.009167823940515518, 0.12745676934719086], [-0.034250933676958084, 0.13807301223278046, 0.09518836438655853], [-0.03943522647023201, 0.12407346069812775, -0.11479667574167252]], [[0.14270907640457153, -0.02625272423028946, -0.09392040222883224], [0.07329695671796799, -0.3362720310688019, 0.07206901907920837], [-0.03109157457947731, -0.029230749234557152, -0.1834971159696579]], [[-0.021864820271730423, 0.030833883211016655, -0.25220826268196106], [-0.18013796210289001, -0.18436972796916962, -0.05203809216618538], [-0.24798035621643066, 0.010081376880407333, -0.11482877284288406]]], [[[0.2273845672607422, -0.0966046079993248, -0.21046383678913116], [-0.5892186760902405, -0.35886669158935547, -0.22501912713050842], [-0.12653625011444092, 0.01735793426632881, -0.027116185054183006]], [[-0.17396599054336548, -0.13631558418273926, -0.1686839759349823], [-0.160898357629776, 0.1171012818813324, 0.13585151731967926], [0.08639882504940033, 0.2456171214580536, 0.267077773809433]], [[-0.06885543465614319, -0.17275704443454742, -0.23320765793323517], [-0.247457817196846, -0.18225380778312683, -0.19006004929542542], [-0.045189812779426575, 0.051545217633247375, -0.14676891267299652]], [[0.12682847678661346, -0.1453535258769989, -0.15108591318130493], [-0.14103516936302185, 0.03212950751185417, 0.021285047754645348], [0.07338343560695648, 0.15451641380786896, 0.15666040778160095]], [[-0.10446854680776596, 0.023866333067417145, -0.11708946526050568], [-0.14470180869102478, -0.17059670388698578, 0.06550866365432739], [0.02215050347149372, 0.015484604053199291, -0.12224309146404266]], [[-0.17826834321022034, -0.2179916650056839, -0.19394610822200775], [-0.22156424820423126, -0.012621330097317696, -0.017966806888580322], [0.0333353728055954, 0.2613166272640228, 0.14812758564949036]], [[0.1659766137599945, 0.25428739190101624, 0.026600167155265808], [0.09903682768344879, -0.018790801987051964, 0.056008487939834595], [-0.0004960297956131399, 0.10979247838258743, 0.10924132913351059]], [[0.057928137481212616, -0.057693395763635635, 0.10433553904294968], [0.036984633654356, -0.03572215512394905, 0.06279223412275314], [0.05747044086456299, 0.03441396355628967, 0.062135037034749985]]], [[[0.1773078292608261, 0.20632894337177277, -0.16343483328819275], [0.19328388571739197, 0.39808520674705505, 0.25279000401496887], [-0.06198105961084366, -0.005462653934955597, 0.2741381824016571]], [[0.11692467331886292, 0.1205509826540947, -0.15955041348934174], [-0.001620443887077272, 0.15137895941734314, 0.06479861587285995], [-0.08216948062181473, -0.08418522030115128, 0.00595080154016614]], [[-0.24631938338279724, -0.24771708250045776, 0.12034392356872559], [-0.15029634535312653, -0.337282657623291, -0.165329709649086], [0.1914760321378708, -0.037468455731868744, -0.08427806198596954]], [[-0.02804671972990036, -0.34854382276535034, -0.2849087417125702], [0.1980127990245819, -0.06656965613365173, -0.1045248955488205], [-0.01878914050757885, 0.13301514089107513, 0.13715612888336182]], [[-0.1587350070476532, 0.08185634016990662, 0.33568620681762695], [-0.11740010231733322, -0.10430694371461868, -0.015542653389275074], [-0.10585424304008484, -0.1541081666946411, -0.054665517061948776]], [[0.03398796170949936, 0.06908349692821503, -0.09417059272527695], [0.13761240243911743, -0.08090704679489136, 0.050110477954149246], [-0.06180626526474953, -0.17876991629600525, 0.022624850273132324]], [[0.06029631197452545, 0.009837322868406773, -0.14108289778232574], [0.26030823588371277, 0.15745317935943604, -0.12343180924654007], [-0.032694216817617416, 0.15355868637561798, 0.20498566329479218]], [[-0.02002367377281189, -0.15598413348197937, 0.2968769669532776], [0.028943238779902458, -0.25874871015548706, -0.057272687554359436], [0.07765080779790878, -0.084439717233181, -0.03400932252407074]]], [[[0.17604871094226837, 0.19687530398368835, -0.008276989683508873], [0.09900039434432983, 0.08886813372373581, 0.16080088913440704], [-0.13899683952331543, -0.013722872361540794, -0.03916099667549133]], [[0.13564597070217133, -0.022928817197680473, 0.07214777171611786], [-0.05446736887097359, 0.0548500195145607, 0.02173338457942009], [-0.1883741021156311, -0.13152742385864258, -0.004434292204678059]], [[-0.05704814940690994, -0.13022297620773315, -0.22686515748500824], [-0.12938500940799713, -0.13305440545082092, -0.12122949212789536], [0.10705912113189697, -0.039460211992263794, -0.05173933506011963]], [[-0.05877646803855896, 0.021204784512519836, 0.006917601451277733], [0.04789742827415466, 0.18586064875125885, 0.21071751415729523], [-0.19244956970214844, -0.0634257048368454, 0.17491143941879272]], [[-0.10921783000230789, -0.15512415766716003, -0.11645518988370895], [0.06888826936483383, -0.06419707834720612, -0.04626389965415001], [-0.007381420116871595, -0.14209719002246857, -0.10663782060146332]], [[0.05339176952838898, 0.058785539120435715, -0.018669987097382545], [0.03586762025952339, 0.009963317774236202, 0.03834746405482292], [-0.10243403911590576, -0.2070145159959793, -0.10810381174087524]], [[0.18807606399059296, 0.04191550612449646, -0.0192364864051342], [-0.11673145741224289, -0.029833059757947922, 0.11750796437263489], [-0.03934160992503166, 0.09679395705461502, 0.24506829679012299]], [[-0.09983407706022263, -0.12067779153585434, 0.07495427131652832], [-0.03376857936382294, -0.005932722706347704, 0.012741033919155598], [0.005613695830106735, -0.021904822438955307, 0.009843920357525349]]], [[[0.23747485876083374, 0.296889066696167, -0.032923705875873566], [-0.11143971234560013, 0.06400293856859207, 0.14389362931251526], [0.028943125158548355, -0.041470397263765335, -0.08370453864336014]], [[0.21611237525939941, 0.2728685736656189, -0.037242598831653595], [-0.014827452600002289, 4.326501220930368e-05, 0.051448699086904526], [-0.19613255560398102, -0.057949598878622055, 0.07953283190727234]], [[-0.5723263621330261, -0.2730826735496521, 0.08449511229991913], [-0.24387021362781525, -0.0771017074584961, -0.04406516253948212], [-0.09808807820081711, -0.010843733325600624, 0.18148432672023773]], [[0.036797232925891876, -0.40318894386291504, -0.19773228466510773], [-0.03335151448845863, -0.10817048698663712, -0.300913542509079], [0.11724536865949631, -0.0007646821322850883, -0.0028412158135324717]], [[-0.19341497123241425, -0.16721634566783905, 0.09148608893156052], [-0.05612527206540108, -0.13099652528762817, -0.025031069293618202], [-0.2010098546743393, -0.2894543409347534, -0.06173768267035484]], [[0.15144415199756622, 0.1170213595032692, -0.12641263008117676], [-0.05258827283978462, 0.16375736892223358, 0.15345552563667297], [0.0558193102478981, 0.14134083688259125, 0.0711163803935051]], [[0.06438052654266357, -0.1705625206232071, -0.30129796266555786], [0.06360751390457153, 0.13113805651664734, -0.06132422387599945], [0.12698392570018768, -0.027115587145090103, -0.15670843422412872]], [[-0.24670298397541046, -0.23850595951080322, -0.07582267373800278], [0.005660688504576683, -0.12924161553382874, -0.03836705535650253], [-0.10054348409175873, -0.08545278012752533, -0.13058273494243622]]], [[[-0.1858237385749817, -0.13185618817806244, -0.25864851474761963], [-0.12310224771499634, -0.005017366260290146, -0.24558405578136444], [0.017619894817471504, -0.033431295305490494, -0.2294209599494934]], [[0.0989900678396225, -0.02293853834271431, -0.227491557598114], [-0.023323120549321175, 0.047759074717760086, -0.24539631605148315], [0.16826023161411285, 0.19977760314941406, 0.03893010690808296]], [[-0.2277573198080063, 0.07965847104787827, 0.1824456751346588], [0.06989039480686188, 0.13258494436740875, 0.13528278470039368], [0.035646069794893265, 0.18501660227775574, 0.013799336738884449]], [[-0.22551916539669037, 0.012392891570925713, -0.19192606210708618], [0.028929900377988815, 0.05412326753139496, -0.20981626212596893], [-0.18729838728904724, -0.08998212963342667, -0.12118569761514664]], [[-0.01117715798318386, 0.038995858281850815, -0.016015131026506424], [-0.09498287737369537, 0.02117985300719738, 0.068092942237854], [0.13184835016727448, -0.0189202930778265, -0.05724690109491348]], [[0.06976664066314697, 0.13780872523784637, -0.09956122934818268], [-0.03931357339024544, 0.17910654842853546, -0.21001972258090973], [0.1120876669883728, 0.18675099313259125, -0.08281239122152328]], [[-0.059880658984184265, -0.12179145216941833, -0.22732135653495789], [-0.2084856629371643, -0.10509844124317169, -0.14364197850227356], [-0.07378482073545456, 0.1185084879398346, 0.1290193647146225]], [[0.033839646726846695, 0.05561155825853348, 0.011816701851785183], [-0.01657337322831154, -0.0840764194726944, 0.13225413858890533], [-0.0978723019361496, -0.11804948002099991, -0.03940979018807411]]], [[[-0.30702823400497437, -0.06134612485766411, 0.07262533903121948], [-0.24306179583072662, -0.08629801124334335, -0.16204290091991425], [-0.05262000858783722, -0.1766105741262436, 0.07945045083761215]], [[0.09275463968515396, 0.03345328941941261, -0.01407543569803238], [0.0608680360019207, -0.022432535886764526, -0.17768831551074982], [-0.05611348897218704, -0.22511154413223267, -0.10043659061193466]], [[0.15734317898750305, 0.1933489441871643, 0.023753849789500237], [0.2706812918186188, 0.23776836693286896, -0.12377308309078217], [0.10034630447626114, -0.03609367087483406, -0.04326408728957176]], [[0.15319910645484924, 0.10695008933544159, -0.18035374581813812], [0.23999446630477905, 0.17429091036319733, -0.21461796760559082], [0.2149379998445511, 0.04243212565779686, -0.10936208069324493]], [[-0.17901510000228882, -0.020873237401247025, 0.05490763857960701], [0.06583723425865173, 0.01156504824757576, 0.039039645344018936], [-0.03535723313689232, -0.023210376501083374, 0.03723707050085068]], [[0.19796910881996155, 0.18755248188972473, -0.083397276699543], [0.1939939558506012, -0.047403544187545776, -0.23104122281074524], [0.1942308396100998, -0.20064543187618256, -0.25836312770843506]], [[-0.2161567360162735, -0.04817279800772667, 0.08780889958143234], [-0.19841021299362183, -0.010352415032684803, 0.0010202281409874558], [-0.09332604706287384, 0.03392596170306206, 0.026560524478554726]], [[-0.11138148605823517, -0.10400044918060303, -0.0011561460560187697], [-0.09816867113113403, -0.011224666610360146, -0.08687563240528107], [-0.12567371129989624, 0.04277275502681732, 0.08553178608417511]]], [[[-0.14373093843460083, -0.3021072447299957, -0.016940873116254807], [-0.44897258281707764, -0.009589647874236107, 0.11372452229261398], [0.020577359944581985, -0.0033268320839852095, 0.04040412977337837]], [[-0.2873237431049347, 0.09173944592475891, 0.07887687534093857], [0.015072119422256947, 0.04274529591202736, -0.07221893966197968], [-0.03195315599441528, -0.10603455454111099, -0.04896259307861328]], [[-0.19101399183273315, 0.2609916627407074, 0.26640766859054565], [0.032485656440258026, 0.3277079164981842, -0.018582528457045555], [0.314639151096344, 0.08973737806081772, -0.011264568194746971]], [[-0.30340060591697693, 0.16563943028450012, 0.2671574652194977], [0.10017713904380798, 0.2576446831226349, -0.0694180428981781], [0.061734266579151154, 0.09718415141105652, 0.1624906212091446]], [[-0.09765541553497314, 0.018058335408568382, -0.07594723999500275], [-0.32571104168891907, -0.14686910808086395, 0.09585198014974594], [-0.06544942408800125, 0.049365460872650146, -0.08272765576839447]], [[-0.3891180157661438, 0.03385170176625252, 0.03469093143939972], [-0.07361661642789841, 0.18919895589351654, -0.03498842567205429], [0.14544060826301575, 0.025220962241292, -0.2110711932182312]], [[0.27102047204971313, -0.1470670849084854, 0.0033338735811412334], [-0.12171246111392975, -0.060671307146549225, 0.10507608205080032], [-0.1456107199192047, -0.061322033405303955, 0.04805989935994148]], [[-0.055404454469680786, -0.2941654622554779, -0.0020752709824591875], [-0.24242250621318817, -0.15192024409770966, -0.04979237541556358], [-0.2457747608423233, -0.13729509711265564, 0.04623065143823624]]], [[[-0.2874225378036499, -0.19565318524837494, -0.03750466927886009], [0.05726885423064232, -0.14350144565105438, -0.09349500387907028], [0.07177173346281052, -0.016521161422133446, 0.07748814672231674]], [[-0.07580991089344025, -0.15576055645942688, -0.1464998871088028], [0.22353941202163696, -0.14108902215957642, -0.08312492817640305], [-0.04156334698200226, -0.03392123803496361, 0.18000149726867676]], [[0.08704794943332672, 0.06675036251544952, -0.0027060038410127163], [0.1300262212753296, -0.14053109288215637, -0.06441184878349304], [0.1489153504371643, -0.044127922505140305, -0.11474210023880005]], [[-0.024168336763978004, -0.2629377245903015, -0.02771853841841221], [-0.08549047261476517, -0.08832603693008423, -0.2450253963470459], [0.13782230019569397, -0.12697023153305054, 0.020181430503726006]], [[3.436806582612917e-05, -0.08032967150211334, 0.016655998304486275], [-0.05717039108276367, -0.04886569455265999, -0.08320501446723938], [0.11527884006500244, 0.03255883976817131, 0.02127157896757126]], [[0.12994949519634247, -0.14308249950408936, -0.09891960769891739], [0.22630620002746582, -0.046383392065763474, 0.04709877073764801], [0.16904672980308533, 0.00864577665925026, 0.17439815402030945]], [[0.09340402483940125, -0.10624002665281296, -0.1485065370798111], [-0.149947851896286, -0.04028244689106941, 0.06006207689642906], [0.05650044605135918, 0.10336233675479889, -0.022986728698015213]], [[0.11283351480960846, 0.09725049883127213, -0.011580119840800762], [-0.021101441234350204, -0.12314588576555252, -0.03288177400827408], [-0.09156905114650726, 0.06629753112792969, -0.05580699071288109]]], [[[-0.0867365375161171, -0.341422438621521, -0.044675540179014206], [0.049988605082035065, 0.1350529044866562, -0.14418242871761322], [-0.014503276906907558, 0.23969589173793793, 0.4507480561733246]], [[0.03650519251823425, 0.1162879690527916, -0.2911399006843567], [0.08528106659650803, 0.16333015263080597, -0.12307720631361008], [0.06642158329486847, 0.19281984865665436, 0.12611964344978333]], [[0.13019338250160217, 0.47211122512817383, 0.17761802673339844], [-0.11980165541172028, 0.0799814909696579, 0.10198654234409332], [-0.2114889770746231, -0.32908982038497925, -0.24148792028427124]], [[-0.0867626890540123, 0.15669728815555573, 0.08011797070503235], [-0.20666667819023132, -0.13190501928329468, -0.02127782441675663], [-0.07892166078090668, -0.047353003174066544, 0.172895148396492]], [[-0.13644735515117645, 0.14772246778011322, -0.0759594663977623], [-0.06775761395692825, 0.04757065325975418, -0.24004262685775757], [-0.10098481923341751, -0.3966629207134247, -0.4295917749404907]], [[-0.03158258646726608, 0.22494035959243774, -0.023353254422545433], [-0.05371313542127609, -0.05938027799129486, -0.07395985722541809], [0.07027985900640488, -0.026623589918017387, 0.1675434112548828]], [[-0.26694726943969727, -0.3261314332485199, 0.10504037886857986], [-0.2680865228176117, -0.35663288831710815, 0.21516244113445282], [-0.11904525756835938, 0.16461415588855743, 0.16685137152671814]], [[-0.24520829319953918, -0.09751494228839874, -0.03622768819332123], [-0.19448255002498627, -0.2824569344520569, -0.16864992678165436], [-0.21736662089824677, -0.47205355763435364, -0.25642120838165283]]], [[[0.22084587812423706, -0.02975357510149479, 0.04103468358516693], [0.35876092314720154, 0.15846280753612518, -0.09178635478019714], [-0.27436718344688416, -0.04361293837428093, -0.34015950560569763]], [[-0.012054375372827053, 0.026986127719283104, 0.041094448417425156], [0.026366742327809334, 0.13012535870075226, -0.17903508245944977], [-0.2614894509315491, -0.2677168846130371, -0.098897784948349]], [[0.13727949559688568, 0.04186643287539482, -0.014208665117621422], [-0.14919088780879974, -0.00458147469907999, 0.18123799562454224], [-0.18718154728412628, -0.08354140818119049, -0.19149883091449738]], [[0.04703420773148537, 0.13521122932434082, 0.2182260900735855], [0.008853288367390633, 0.18369679152965546, 0.07475847005844116], [-0.19933736324310303, -0.12192867696285248, -0.1875465363264084]], [[-0.009568101726472378, -0.023126283660531044, -0.1471382975578308], [0.04468334838747978, -0.045581310987472534, -0.07052396982908249], [0.1187853068113327, 0.044628970324993134, -0.020168207585811615]], [[0.10041447728872299, -0.031823884695768356, 0.20093213021755219], [0.038353048264980316, -0.026638410985469818, -0.03857412189245224], [-0.12800325453281403, -0.3065791726112366, -0.13363948464393616]], [[0.05349283665418625, 0.17463728785514832, 0.1484832465648651], [0.3140425980091095, 0.1446952223777771, 0.043118204921483994], [0.002464237157255411, 0.16817951202392578, -0.2853955924510956]], [[0.03566586598753929, 0.08178342878818512, 0.003994074650108814], [-0.06255336105823517, -0.14321134984493256, 0.07476706057786942], [0.0017617570701986551, -0.07633092254400253, 0.06728198379278183]]], [[[-0.025633666664361954, -0.05039812996983528, -0.3060672879219055], [0.02974659390747547, 0.07230707257986069, -0.007251229602843523], [-0.009864754043519497, 0.04073440656065941, 0.10473261028528214]], [[-0.24106431007385254, 0.06572338193655014, -0.11957598477602005], [0.02625179849565029, 0.12886354327201843, 0.1016811653971672], [-0.02775287814438343, -0.05144306644797325, -0.001019301125779748]], [[-0.022957641631364822, 0.047785576432943344, 0.08360955864191055], [-0.17664533853530884, -0.02285979501903057, -0.23280908167362213], [-0.017966579645872116, 0.0709645077586174, -0.02643045037984848]], [[-0.233833447098732, 0.018763255327939987, 0.10557720810174942], [0.009772365912795067, -0.034112054854631424, -0.06907447427511215], [0.013174017891287804, 0.03938617929816246, 0.02438952960073948]], [[-0.06629319489002228, -0.08740260452032089, -0.1013818308711052], [-0.1648077517747879, -0.024759219959378242, -0.1474544256925583], [-0.10755791515111923, -0.040178149938583374, -0.1263114959001541]], [[-0.15364506840705872, -0.031628310680389404, -0.04761815443634987], [0.06917135417461395, -0.002578453626483679, 0.10385455191135406], [-0.004159338306635618, 0.11955703794956207, 0.1483827382326126]], [[0.2663527727127075, 0.0015692422166466713, 0.08764354139566422], [-0.1169196292757988, 0.1275913268327713, -0.02480855956673622], [0.017659220844507217, -0.006105801556259394, 0.11545311659574509]], [[0.048423539847135544, -0.012821411713957787, -0.10868358612060547], [0.03474391624331474, -0.06073472276329994, -0.17146989703178406], [-0.05125725641846657, -0.010810596868395805, -0.11771947145462036]]], [[[-0.1913323551416397, -0.01766013167798519, -0.08782363682985306], [0.2036055624485016, -0.029624098911881447, -0.23602530360221863], [-0.09380567818880081, 0.08490411192178726, -0.17676126956939697]], [[0.16874393820762634, 0.18927764892578125, 0.011738650500774384], [0.040181715041399, 0.05522455275058746, -0.14783260226249695], [-0.17151521146297455, -0.1415896713733673, -0.23211124539375305]], [[-0.346551775932312, -0.19960322976112366, 0.06764969229698181], [-0.293925017118454, -0.06436633318662643, 0.05572371557354927], [-0.1160256639122963, -0.1044226884841919, 0.10993676632642746]], [[-0.06354167312383652, -0.03513440117239952, 0.17655164003372192], [-0.06971210986375809, 0.11557408422231674, 0.04673834890127182], [-0.046902645379304886, 0.1792612373828888, -0.0052080717869102955]], [[-0.09140808880329132, -0.002993691246956587, 0.05689893662929535], [0.025604914873838425, 0.05411716178059578, 0.007648708298802376], [0.05843159183859825, -0.10331077873706818, 0.0011175036197528243]], [[0.1179661899805069, 0.1886686384677887, 0.1908857822418213], [-0.035379137843847275, -0.012733365409076214, -0.08401884138584137], [-0.07109197229146957, 0.06740816682577133, -0.2493257224559784]], [[-0.22285224497318268, -0.207854226231575, -0.17417582869529724], [-0.09415768831968307, -0.20357900857925415, -0.12704040110111237], [-0.006405254360288382, 0.13230015337467194, 0.02489863894879818]], [[-0.09510999917984009, -0.1384979635477066, -0.07752405852079391], [-0.07729737460613251, 0.14319854974746704, 0.07792744785547256], [-0.046142056584358215, 0.10240624845027924, 0.02468869276344776]]], [[[0.015543067827820778, -0.18360354006290436, -0.2780759036540985], [-0.033161941915750504, -0.046641044318675995, -0.3937455415725708], [-0.22094066441059113, 0.010556817054748535, 0.006151759531348944]], [[0.04558219388127327, 0.13967151939868927, 0.03613428771495819], [-0.1814722865819931, 0.07712158560752869, 0.02747608721256256], [-0.006620335392653942, 0.04180920496582985, 0.13990451395511627]], [[-0.20723392069339752, 0.18710824847221375, 0.3534321188926697], [-0.3805605173110962, 0.14773301780223846, 0.3426702618598938], [-0.38532423973083496, -0.14973850548267365, 0.03648822009563446]], [[-0.12831711769104004, -0.028349077329039574, 0.21012283861637115], [-0.47687748074531555, -0.18660597503185272, -0.15761977434158325], [-0.3049408793449402, -0.10388247668743134, -0.0708606019616127]], [[-0.13421547412872314, 0.10448753833770752, 0.3282254636287689], [-0.04919624701142311, 0.0025720272678881884, 0.22516104578971863], [0.13113032281398773, -0.10828341543674469, 0.05839351564645767]], [[-0.09134317934513092, 0.04166035354137421, 0.20832155644893646], [-0.23122544586658478, 0.18711164593696594, 0.11540228128433228], [-0.12762080132961273, 0.10966575145721436, 0.1529339998960495]], [[0.12882699072360992, -0.2708132863044739, -0.3179475963115692], [-0.052432987838983536, -0.5666413307189941, -0.23721793293952942], [-0.08964903652667999, -0.11115305870771408, -0.07854807376861572]], [[-0.029803339391946793, -0.16768352687358856, -0.09088809043169022], [-0.08284474164247513, -0.09257110953330994, -0.12025400996208191], [0.1384063959121704, -0.030450638383626938, -0.21361708641052246]]], [[[-0.12396195530891418, -0.13645051419734955, -0.3353491425514221], [0.2398730218410492, 0.035631924867630005, 0.15909449756145477], [0.22956542670726776, 0.42197176814079285, 0.35909950733184814]], [[-0.062307171523571014, 0.041869692504405975, -0.02095872163772583], [0.07191051542758942, 0.03904767706990242, 0.2198120802640915], [-0.20027285814285278, -0.09930242598056793, -0.1913885772228241]], [[0.028642412275075912, -0.11353980749845505, -0.1917167454957962], [-0.08565053343772888, -0.06857781857252121, -0.20051275193691254], [-0.025278519839048386, -0.08603979647159576, -0.07531949132680893]], [[-0.09405738860368729, 0.0066873421892523766, 0.039809033274650574], [0.17132505774497986, 0.1882772147655487, 0.07728254050016403], [0.11043539643287659, 0.15775111317634583, 0.20744147896766663]], [[-0.023318463936448097, 0.04467514157295227, -0.022633980959653854], [-0.016986146569252014, -0.21080496907234192, -0.07876807451248169], [0.15220053493976593, 0.013321944512426853, -0.0332835391163826]], [[0.03890012577176094, -0.05039945989847183, -0.052501462399959564], [-0.009410595521330833, 0.14378370344638824, -0.005722453352063894], [-0.04718726500868797, -0.18726903200149536, -0.1496742069721222]], [[0.07802075892686844, 0.12857133150100708, 0.1453678160905838], [-0.0024836070369929075, -0.0004811155959032476, 0.1169549748301506], [0.19960813224315643, 0.29561784863471985, 0.2577357590198517]], [[0.05063281208276749, 0.0329815112054348, 0.06447956711053848], [-0.1844295859336853, -0.17690810561180115, 0.008760417811572552], [0.082609161734581, 0.03939353674650192, 0.03575250878930092]]]], "conv2_bias": [-0.09587255865335464, -0.05082947015762329, -0.11591412127017975, -0.09536085277795792, 0.011016598902642727, -0.013404586352407932, -0.009919000789523125, -0.12694776058197021, -0.007480050437152386, 0.04032943397760391, -0.06445039808750153, -0.0753609836101532, -0.06668777018785477, -0.012811940163373947, -0.049219563603401184, -0.00672940444201231]}